//Numpy array shape [10, 10]
//Min -1.000000000000
//Max 0.968750000000
//Number of zeros 5

#ifndef W5_H_
#define W5_H_

#ifndef __SYNTHESIS__
weight5_t w5[100];
#else
weight5_t w5[100] = {0.25000, 0.00000, -0.12500, 0.00000, -0.84375, 0.75000, 0.96875, -0.06250, -0.46875, -0.40625, -0.12500, 0.96875, 0.40625, -0.56250, -0.25000, 0.03125, -0.96875, -0.46875, 0.34375, -0.18750, -0.06250, -1.00000, 0.00000, -0.96875, 0.00000, 0.18750, -0.53125, -0.09375, 0.71875, 0.96875, -0.09375, -0.59375, 0.96875, 0.18750, 0.09375, 0.59375, 0.90625, -0.40625, -0.03125, -0.78125, -0.46875, -1.00000, 0.03125, -0.03125, 0.59375, -1.00000, 0.43750, -0.03125, -0.28125, 0.96875, 0.96875, -0.06250, -1.00000, -0.62500, -0.18750, 0.40625, -0.15625, -0.84375, 0.96875, -0.12500, 0.96875, 0.03125, 0.18750, 0.96875, -0.09375, -0.75000, -0.68750, 0.65625, 0.34375, 0.46875, -0.43750, 0.71875, 0.56250, 0.46875, 0.96875, 0.59375, 0.00000, -0.03125, -0.46875, 0.62500, -0.28125, 0.40625, -0.84375, -1.00000, -0.50000, -0.31250, 0.46875, 0.96875, -0.43750, -0.12500, 0.59375, -0.59375, -0.34375, 0.25000, 0.96875, 0.96875, -0.87500, 0.96875, -1.00000, -1.00000};
#endif

#endif
