//Numpy array shape [10, 10]
//Min -1.000000000000
//Max 0.968750000000
//Number of zeros 6

#ifndef W5_H_
#define W5_H_

#ifndef __SYNTHESIS__
weight5_t w5[100];
#else
weight5_t w5[100] = {0.43750, -1.00000, -0.50000, 0.21875, 0.50000, 0.28125, 0.21875, -0.62500, 0.96875, 0.00000, -1.00000, -0.18750, -0.93750, 0.03125, 0.50000, 0.00000, 0.09375, 0.96875, 0.06250, 0.78125, 0.12500, 0.62500, 0.56250, 0.65625, -0.46875, -0.03125, 0.84375, 0.56250, -0.87500, -0.87500, -0.06250, -0.56250, 0.00000, 0.87500, -0.53125, -0.03125, -0.43750, 0.50000, -0.90625, 0.96875, -0.06250, -0.65625, 0.09375, 0.40625, 0.59375, 0.09375, 0.78125, 0.37500, 0.96875, -0.65625, 0.25000, 0.31250, -1.00000, 0.00000, -0.56250, -0.28125, 0.96875, -0.90625, 0.06250, 0.31250, 0.59375, 0.40625, 0.03125, -0.87500, 0.09375, -0.78125, -0.53125, -0.34375, 0.00000, -0.15625, -0.37500, -0.21875, 0.96875, -0.34375, 0.96875, -0.43750, 0.00000, -0.90625, -0.06250, -0.71875, 0.40625, 0.31250, 0.56250, -0.75000, -0.21875, 0.78125, -1.00000, 0.09375, 0.96875, 0.43750, -1.00000, 0.84375, 0.96875, -1.00000, 0.78125, 0.96875, -0.81250, 0.43750, -0.59375, 0.96875};
#endif

#endif
