//Numpy array shape [10, 10]
//Min -1.000000000000
//Max 0.968750000000
//Number of zeros 0

#ifndef W8_H_
#define W8_H_

#ifndef __SYNTHESIS__
weight8_t w8[100];
#else
weight8_t w8[100] = {-1.00000, 0.96875, -0.96875, -1.00000, -1.00000, -1.00000, 0.96875, 0.96875, -1.00000, -1.00000, 0.96875, 0.96875, -0.96875, 0.96875, -1.00000, -1.00000, 0.87500, -1.00000, -1.00000, -1.00000, 0.96875, -1.00000, -1.00000, -1.00000, 0.96875, -1.00000, 0.53125, 0.96875, -1.00000, 0.96875, 0.96875, -1.00000, 0.96875, 0.90625, -1.00000, 0.96875, -1.00000, -1.00000, 0.96875, -1.00000, -1.00000, -1.00000, -1.00000, 0.96875, -1.00000, 0.96875, -1.00000, -1.00000, 0.96875, 0.96875, -1.00000, -1.00000, -1.00000, -0.81250, 0.96875, -1.00000, -1.00000, 0.96875, 0.96875, 0.96875, -1.00000, 0.96875, 0.96875, -1.00000, 0.96875, -0.59375, 0.96875, -1.00000, 0.96875, -1.00000, 0.96875, -1.00000, 0.96875, 0.96875, -1.00000, 0.96875, 0.96875, 0.50000, -1.00000, -0.21875, -1.00000, 0.96875, 0.96875, 0.96875, -1.00000, -1.00000, -1.00000, 0.96875, 0.96875, -1.00000, -1.00000, -1.00000, 0.96875, -1.00000, 0.96875, -1.00000, 0.96875, -1.00000, -1.00000, 0.96875};
#endif

#endif
